FANN_FLO_2.1
num_layers=4
learning_rate=0.700000
connection_rate=1.000000
network_type=0
learning_momentum=0.000000
training_algorithm=2
train_error_function=1
train_stop_function=0
cascade_output_change_fraction=0.010000
quickprop_decay=-0.000100
quickprop_mu=1.750000
rprop_increase_factor=1.200000
rprop_decrease_factor=0.500000
rprop_delta_min=0.000000
rprop_delta_max=50.000000
rprop_delta_zero=0.100000
cascade_output_stagnation_epochs=12
cascade_candidate_change_fraction=0.010000
cascade_candidate_stagnation_epochs=12
cascade_max_out_epochs=150
cascade_min_out_epochs=50
cascade_max_cand_epochs=150
cascade_min_cand_epochs=50
cascade_num_candidate_groups=2
bit_fail_limit=3.49999994039535522461e-01
cascade_candidate_limit=1.00000000000000000000e+03
cascade_weight_multiplier=4.00000005960464477539e-01
cascade_activation_functions_count=10
cascade_activation_functions=3 5 7 8 10 11 14 15 16 17 
cascade_activation_steepnesses_count=4
cascade_activation_steepnesses=2.50000000000000000000e-01 5.00000000000000000000e-01 7.50000000000000000000e-01 1.00000000000000000000e+00 
layer_sizes=14 9 6 5 
scale_included=0
neurons (num_inputs, activation_function, activation_steepness)=(0, 0, 0.00000000000000000000e+00) (0, 0, 0.00000000000000000000e+00) (0, 0, 0.00000000000000000000e+00) (0, 0, 0.00000000000000000000e+00) (0, 0, 0.00000000000000000000e+00) (0, 0, 0.00000000000000000000e+00) (0, 0, 0.00000000000000000000e+00) (0, 0, 0.00000000000000000000e+00) (0, 0, 0.00000000000000000000e+00) (0, 0, 0.00000000000000000000e+00) (0, 0, 0.00000000000000000000e+00) (0, 0, 0.00000000000000000000e+00) (0, 0, 0.00000000000000000000e+00) (0, 0, 0.00000000000000000000e+00) (14, 5, 5.00000000000000000000e-01) (14, 5, 5.00000000000000000000e-01) (14, 5, 5.00000000000000000000e-01) (14, 5, 5.00000000000000000000e-01) (14, 5, 5.00000000000000000000e-01) (14, 5, 5.00000000000000000000e-01) (14, 5, 5.00000000000000000000e-01) (14, 5, 5.00000000000000000000e-01) (0, 5, 0.00000000000000000000e+00) (9, 5, 5.00000000000000000000e-01) (9, 5, 5.00000000000000000000e-01) (9, 5, 5.00000000000000000000e-01) (9, 5, 5.00000000000000000000e-01) (9, 5, 5.00000000000000000000e-01) (0, 5, 0.00000000000000000000e+00) (6, 5, 5.00000000000000000000e-01) (6, 5, 5.00000000000000000000e-01) (6, 5, 5.00000000000000000000e-01) (6, 5, 5.00000000000000000000e-01) (0, 5, 0.00000000000000000000e+00) 
connections (connected_to_neuron, weight)=(0, 1.50000000000000000000e+03) (1, 6.68511962890625000000e+01) (2, 1.43088305664062500000e+03) (3, 1.21701416015625000000e+03) (4, -1.48527441406250000000e+03) (5, 1.49533117675781250000e+03) (6, -1.47354016113281250000e+03) (7, -1.49685107421875000000e+03) (8, 1.19006555175781250000e+03) (9, 1.19080004882812500000e+03) (10, -1.09188879394531250000e+03) (11, -9.11337524414062500000e+02) (12, 1.24080004882812500000e+03) (13, 1.50000000000000000000e+03) (0, -5.84344863891601562500e-01) (1, 1.85747697949409484863e-01) (2, -2.93888747692108154297e-01) (3, 4.96681869029998779297e-01) (4, -8.83191153407096862793e-02) (5, 3.18723112344741821289e-01) (6, 1.07119865715503692627e-01) (7, -1.32150026038289070129e-02) (8, -1.50308579206466674805e-01) (9, 2.35542710870504379272e-02) (10, -5.76356947422027587891e-02) (11, 5.97230195999145507812e-02) (12, -1.35776430368423461914e-01) (13, 4.67622429132461547852e-02) (0, 1.04601657390594482422e+00) (1, -3.41855078935623168945e-01) (2, 1.73543065786361694336e-01) (3, 2.15837076306343078613e-01) (4, -3.08031201362609863281e-01) (5, -5.18546044826507568359e-01) (6, 9.88740399479866027832e-02) (7, -7.26460665464401245117e-03) (8, 1.32273614406585693359e-01) (9, 7.00607225298881530762e-02) (10, -7.75777474045753479004e-02) (11, 8.24380014091730117798e-03) (12, 2.90959160774946212769e-02) (13, -5.07663786411285400391e-01) (0, 1.50000000000000000000e+03) (1, -1.10185717773437500000e+03) (2, 1.48341064453125000000e+03) (3, 5.52817993164062500000e+02) (4, -1.49903198242187500000e+03) (5, 1.50000000000000000000e+03) (6, -5.31353271484375000000e+02) (7, -1.48328698730468750000e+03) (8, -3.56611518859863281250e+01) (9, -2.49627593994140625000e+02) (10, 1.12212854003906250000e+03) (11, -1.49516320800781250000e+03) (12, 1.47087121582031250000e+03) (13, 1.50000000000000000000e+03) (0, -6.37935607910156250000e+02) (1, 1.40884741210937500000e+03) (2, -2.58736572265625000000e+02) (3, -6.08946609497070312500e+01) (4, -1.32176574707031250000e+03) (5, -1.94517303466796875000e+02) (6, 8.06047821044921875000e+01) (7, 9.94626331329345703125e+00) (8, -3.97567413330078125000e+02) (9, -2.00471374511718750000e+02) (10, 1.62096145629882812500e+02) (11, 2.18923278808593750000e+02) (12, 1.13877029418945312500e+02) (13, -1.47400634765625000000e+03) (0, -2.04304158687591552734e-01) (1, -4.50692474842071533203e-02) (2, 1.67006701231002807617e-01) (3, 7.04081237316131591797e-01) (4, 1.41035005450248718262e-01) (5, -4.54581767320632934570e-01) (6, -8.38812470436096191406e-01) (7, 3.25807124376296997070e-01) (8, -6.99841260910034179688e-01) (9, 2.04017851501703262329e-02) (10, -5.36619350314140319824e-02) (11, -4.33609299361705780029e-02) (12, 7.02994763851165771484e-02) (13, -6.24372363090515136719e-02) (0, -4.08304959535598754883e-01) (1, -3.67074787616729736328e-01) (2, 6.91907405853271484375e-02) (3, 3.49588185548782348633e-01) (4, -1.17708161473274230957e-01) (5, -1.74652010202407836914e-01) (6, 7.33728520572185516357e-03) (7, -1.58146873116493225098e-01) (8, 2.27440774440765380859e-01) (9, 6.80191367864608764648e-02) (10, 1.33393099531531333923e-02) (11, 1.44732654094696044922e-01) (12, -8.79209786653518676758e-02) (13, -4.37528699636459350586e-01) (0, -8.80387634277343750000e+02) (1, -1.48823608398437500000e+03) (2, 1.31280126953125000000e+03) (3, 1.89228668212890625000e+02) (4, 1.49981909179687500000e+03) (5, 6.01257781982421875000e+01) (6, -1.49049841308593750000e+03) (7, -1.02537658691406250000e+03) (8, 1.49891979980468750000e+03) (9, -7.52086782455444335938e+00) (10, 1.09452850341796875000e+02) (11, 7.16609287261962890625e+00) (12, 2.16746921539306640625e+01) (13, 1.58163118362426757812e+00) (14, -9.70500528812408447266e-01) (15, -4.82236385345458984375e+00) (16, 2.56218957901000976562e+00) (17, -1.25114953517913818359e+00) (18, -2.81230956315994262695e-01) (19, 3.95435070991516113281e+00) (20, 3.71016907691955566406e+00) (21, 1.45022138953208923340e-01) (22, 7.69467294216156005859e-01) (14, 2.60149389505386352539e-01) (15, 3.55808186531066894531e+00) (16, 5.69267797470092773438e+00) (17, 1.22696435451507568359e+00) (18, 1.02765092849731445312e+01) (19, 1.54834394454956054688e+01) (20, -6.06786668300628662109e-01) (21, 1.86740255355834960938e+00) (22, 5.20913600921630859375e-01) (14, 1.30056548118591308594e+00) (15, -4.35252666473388671875e-01) (16, 3.34385728836059570312e+00) (17, 1.84250640869140625000e+00) (18, -1.20673942565917968750e+00) (19, 5.60928726196289062500e+00) (20, -9.85669040679931640625e+00) (21, 1.84835422039031982422e+00) (22, 2.02932643890380859375e+00) (14, -3.79356026649475097656e-01) (15, 2.81870079040527343750e+00) (16, 1.75287842750549316406e+00) (17, -1.20171833038330078125e+00) (18, 1.86026096343994140625e+00) (19, 5.05002260208129882812e-01) (20, 2.12083244323730468750e+00) (21, 2.45995577424764633179e-02) (22, -1.34546291828155517578e+00) (14, 5.80648481845855712891e-01) (15, -1.80369663238525390625e+00) (16, -3.67749810218811035156e+00) (17, 1.01334929466247558594e+00) (18, 1.16218328475952148438e+00) (19, -2.66520881652832031250e+00) (20, 2.47733688354492187500e+00) (21, -1.21155850589275360107e-01) (22, 7.30889558792114257812e-01) (23, 3.96749600768089294434e-02) (24, -3.38307332992553710938e+00) (25, 2.00956225395202636719e-01) (26, 3.61663961410522460938e+00) (27, -1.47767709568142890930e-02) (28, 7.90413990616798400879e-02) (23, 3.76537322998046875000e+00) (24, 8.74762237071990966797e-02) (25, -1.08579623699188232422e+00) (26, -9.83020663261413574219e-01) (27, 7.10343658924102783203e-01) (28, 2.77375698089599609375e+00) (23, 1.65682196617126464844e-01) (24, 1.25758171081542968750e-01) (25, 1.11854112148284912109e+00) (26, 5.70184178650379180908e-02) (27, -7.22046136856079101562e-01) (28, 1.76105344295501708984e+00) (23, 2.76504683494567871094e+00) (24, -2.53476619720458984375e+00) (25, 3.30961537361145019531e+00) (26, 3.13901185989379882812e+00) (27, 6.20220899581909179688e+00) (28, 8.78817215561866760254e-02) 
